digraph Tree {
node [shape=box, style="filled, rounded", color="black", fontname="helvetica"] ;
edge [fontname="helvetica"] ;
0 [label="petal length (cm) <= 2.45\ngini = 0.658\nsamples = 105\nvalue = [32, 43, 30]\nclass = versicolor", fillcolor="#e1fbec"] ;
1 [label="gini = 0.0\nsamples = 32\nvalue = [32, 0, 0]\nclass = setosa", fillcolor="#e58139"] ;
0 -> 1 [labeldistance=2.5, labelangle=45, headlabel="True"] ;
2 [label="petal width (cm) <= 1.65\ngini = 0.484\nsamples = 73\nvalue = [0, 43, 30]\nclass = versicolor", fillcolor="#c3f7d9"] ;
0 -> 2 [labeldistance=2.5, labelangle=-45, headlabel="False"] ;
3 [label="petal length (cm) <= 5.0\ngini = 0.046\nsamples = 42\nvalue = [0, 41, 1]\nclass = versicolor", fillcolor="#3ee684"] ;
2 -> 3 ;
4 [label="gini = 0.0\nsamples = 40\nvalue = [0, 40, 0]\nclass = versicolor", fillcolor="#39e581"] ;
3 -> 4 ;
5 [label="petal width (cm) <= 1.55\ngini = 0.5\nsamples = 2\nvalue = [0, 1, 1]\nclass = versicolor", fillcolor="#ffffff"] ;
3 -> 5 ;
6 [label="gini = 0.0\nsamples = 1\nvalue = [0, 0, 1]\nclass = virginica", fillcolor="#8139e5"] ;
5 -> 6 ;
7 [label="gini = 0.0\nsamples = 1\nvalue = [0, 1, 0]\nclass = versicolor", fillcolor="#39e581"] ;
5 -> 7 ;
8 [label="petal length (cm) <= 5.05\ngini = 0.121\nsamples = 31\nvalue = [0, 2, 29]\nclass = virginica", fillcolor="#8a47e7"] ;
2 -> 8 ;
9 [label="petal width (cm) <= 1.9\ngini = 0.408\nsamples = 7\nvalue = [0, 2, 5]\nclass = virginica", fillcolor="#b388ef"] ;
8 -> 9 ;
10 [label="petal length (cm) <= 4.95\ngini = 0.48\nsamples = 5\nvalue = [0, 2, 3]\nclass = virginica", fillcolor="#d5bdf6"] ;
9 -> 10 ;
11 [label="petal width (cm) <= 1.75\ngini = 0.375\nsamples = 4\nvalue = [0, 1, 3]\nclass = virginica", fillcolor="#ab7bee"] ;
10 -> 11 ;
12 [label="gini = 0.0\nsamples = 1\nvalue = [0, 0, 1]\nclass = virginica", fillcolor="#8139e5"] ;
11 -> 12 ;
13 [label="petal length (cm) <= 4.85\ngini = 0.444\nsamples = 3\nvalue = [0, 1, 2]\nclass = virginica", fillcolor="#c09cf2"] ;
11 -> 13 ;
14 [label="gini = 0.5\nsamples = 2\nvalue = [0, 1, 1]\nclass = versicolor", fillcolor="#ffffff"] ;
13 -> 14 ;
15 [label="gini = 0.0\nsamples = 1\nvalue = [0, 0, 1]\nclass = virginica", fillcolor="#8139e5"] ;
13 -> 15 ;
16 [label="gini = 0.0\nsamples = 1\nvalue = [0, 1, 0]\nclass = versicolor", fillcolor="#39e581"] ;
10 -> 16 ;
17 [label="gini = 0.0\nsamples = 2\nvalue = [0, 0, 2]\nclass = virginica", fillcolor="#8139e5"] ;
9 -> 17 ;
18 [label="gini = 0.0\nsamples = 24\nvalue = [0, 0, 24]\nclass = virginica", fillcolor="#8139e5"] ;
8 -> 18 ;
}